<?xml version="1.0"?>
<opencv_storage>
<stage1>
  <maxWeakCount>10</maxWeakCount>
  <stageThreshold>-1.2985192537307739e+00</stageThreshold>
  <weakClassifiers>
    <_>
      <internalNodes>
        0 -1 685767 4.5112337917089462e-02</internalNodes>
      <leafValues>
        -4.2710998654365540e-01 8.3542037010192871e-01</leafValues></_>
    <_>
      <internalNodes>
        0 -1 732524 -1.6800720244646072e-02</internalNodes>
      <leafValues>
        4.5970791578292847e-01 -6.5319871902465820e-01</leafValues></_>
    <_>
      <internalNodes>
        0 -1 706815 1.7381333746016026e-03</internalNodes>
      <leafValues>
        -3.8187831640243530e-01 5.3689676523208618e-01</leafValues></_>
    <_>
      <internalNodes>
        0 -1 514491 -1.6628492623567581e-02</internalNodes>
      <leafValues>
        5.8043706417083740e-01 -2.4053861200809479e-01</leafValues></_>
    <_>
      <internalNodes>
        0 -1 923789 -9.0484286192804575e-04</internalNodes>
      <leafValues>
        2.5872609019279480e-01 -5.0295537710189819e-01</leafValues></_>
    <_>
      <internalNodes>
        0 -1 1104568 1.0556180495768785e-03</internalNodes>
      <leafValues>
        -2.8835996985435486e-01 4.2876163125038147e-01</leafValues></_>
    <_>
      <internalNodes>
        0 -1 258236 7.1887224912643433e-03</internalNodes>
      <leafValues>
        -4.5827135443687439e-01 2.7740553021430969e-01</leafValues></_>
    <_>
      <internalNodes>
        0 -1 695924 -2.2898317547515035e-04</internalNodes>
      <leafValues>
        3.9625641703605652e-01 -2.6925632357597351e-01</leafValues></_>
    <_>
      <internalNodes>
        0 -1 892553 5.3289294010028243e-04</internalNodes>
      <leafValues>
        -2.4510842561721802e-01 4.3511477112770081e-01</leafValues></_>
    <_>
      <internalNodes>
        0 -1 810176 -4.8263613134622574e-03</internalNodes>
      <leafValues>
        1.5529657900333405e-01 -6.5638118982315063e-01</leafValues></_></weakClassifiers></stage1>
</opencv_storage>
