<?xml version="1.0"?>
<opencv_storage>
<stage6>
  <maxWeakCount>22</maxWeakCount>
  <stageThreshold>-1.1135569810867310e+00</stageThreshold>
  <weakClassifiers>
    <_>
      <internalNodes>
        0 -1 724241 4.6616695821285248e-02</internalNodes>
      <leafValues>
        -1.2904997169971466e-01 7.2511368989944458e-01</leafValues></_>
    <_>
      <internalNodes>
        0 -1 820482 3.4582382068037987e-03</internalNodes>
      <leafValues>
        -2.1625199913978577e-01 4.8486134409904480e-01</leafValues></_>
    <_>
      <internalNodes>
        0 -1 212060 1.4596516266465187e-02</internalNodes>
      <leafValues>
        -1.2682852149009705e-01 6.8167525529861450e-01</leafValues></_>
    <_>
      <internalNodes>
        0 -1 1078617 1.0621338151395321e-03</internalNodes>
      <leafValues>
        -2.7294158935546875e-01 2.8501397371292114e-01</leafValues></_>
    <_>
      <internalNodes>
        0 -1 1031339 8.3905353676527739e-04</internalNodes>
      <leafValues>
        1.7888066172599792e-01 -4.8311960697174072e-01</leafValues></_>
    <_>
      <internalNodes>
        0 -1 736325 -3.1797852716408670e-04</internalNodes>
      <leafValues>
        3.1179159879684448e-01 -2.3986841738224030e-01</leafValues></_>
    <_>
      <internalNodes>
        0 -1 566408 -1.4814717695116997e-02</internalNodes>
      <leafValues>
        6.4103943109512329e-01 -1.5308712422847748e-01</leafValues></_>
    <_>
      <internalNodes>
        0 -1 773637 -3.2634607050567865e-03</internalNodes>
      <leafValues>
        -7.5680476427078247e-01 1.0638952255249023e-01</leafValues></_>
    <_>
      <internalNodes>
        0 -1 1035473 -4.5178004074841738e-04</internalNodes>
      <leafValues>
        4.1892516613006592e-01 -1.7379520833492279e-01</leafValues></_>
    <_>
      <internalNodes>
        0 -1 1159407 -9.0387475211173296e-04</internalNodes>
      <leafValues>
        3.5169944167137146e-01 -1.9300924241542816e-01</leafValues></_>
    <_>
      <internalNodes>
        0 -1 809740 -9.2614427558146417e-05</internalNodes>
      <leafValues>
        1.9726036489009857e-01 -3.4178990125656128e-01</leafValues></_>
    <_>
      <internalNodes>
        0 -1 733507 2.0112615078687668e-02</internalNodes>
      <leafValues>
        8.1107176840305328e-02 -8.5128736495971680e-01</leafValues></_>
    <_>
      <internalNodes>
        0 -1 211569 -6.8695482332259417e-04</internalNodes>
      <leafValues>
        3.7268677353858948e-01 -1.8569205701351166e-01</leafValues></_>
    <_>
      <internalNodes>
        0 -1 653939 -1.1316188465571031e-04</internalNodes>
      <leafValues>
        2.8613677620887756e-01 -2.3823793232440948e-01</leafValues></_>
    <_>
      <internalNodes>
        0 -1 213840 1.9897858146578074e-03</internalNodes>
      <leafValues>
        1.9227780401706696e-01 -3.4293755888938904e-01</leafValues></_>
    <_>
      <internalNodes>
        0 -1 733402 -3.0639115720987320e-03</internalNodes>
      <leafValues>
        -5.9207600355148315e-01 8.7559714913368225e-02</leafValues></_>
    <_>
      <internalNodes>
        0 -1 703615 -8.2524947356432676e-04</internalNodes>
      <leafValues>
        2.4522350728511810e-01 -2.6384621858596802e-01</leafValues></_>
    <_>
      <internalNodes>
        0 -1 855174 -6.4414041116833687e-04</internalNodes>
      <leafValues>
        4.1131260991096497e-01 -1.7879934608936310e-01</leafValues></_>
    <_>
      <internalNodes>
        0 -1 786082 -2.1506841294467449e-03</internalNodes>
      <leafValues>
        1.7537117004394531e-01 -3.4483894705772400e-01</leafValues></_>
    <_>
      <internalNodes>
        0 -1 670652 -2.5765767786651850e-03</internalNodes>
      <leafValues>
        -7.2484129667282104e-01 8.4692716598510742e-02</leafValues></_>
    <_>
      <internalNodes>
        0 -1 676582 -6.9426354020833969e-03</internalNodes>
      <leafValues>
        1.8421100080013275e-01 -3.3297699689865112e-01</leafValues></_>
    <_>
      <internalNodes>
        0 -1 1104893 -2.1218727342784405e-03</internalNodes>
      <leafValues>
        3.2853525876998901e-01 -1.8384428322315216e-01</leafValues></_></weakClassifiers></stage6>
</opencv_storage>
