<?xml version="1.0"?>
<opencv_storage>
<stage3>
  <maxWeakCount>15</maxWeakCount>
  <stageThreshold>-1.0666967630386353e+00</stageThreshold>
  <weakClassifiers>
    <_>
      <internalNodes>
        0 -1 687332 4.3170414865016937e-02</internalNodes>
      <leafValues>
        -1.8062138557434082e-01 8.1167805194854736e-01</leafValues></_>
    <_>
      <internalNodes>
        0 -1 857135 -1.4273864217102528e-03</internalNodes>
      <leafValues>
        4.1343826055526733e-01 -4.8182773590087891e-01</leafValues></_>
    <_>
      <internalNodes>
        0 -1 698798 2.5878895539790392e-03</internalNodes>
      <leafValues>
        -3.8598346710205078e-01 3.5663753747940063e-01</leafValues></_>
    <_>
      <internalNodes>
        0 -1 316817 1.6994845122098923e-02</internalNodes>
      <leafValues>
        -3.5910177230834961e-01 3.6291739344596863e-01</leafValues></_>
    <_>
      <internalNodes>
        0 -1 1060638 1.0118654608959332e-04</internalNodes>
      <leafValues>
        -2.8617703914642334e-01 4.1974440217018127e-01</leafValues></_>
    <_>
      <internalNodes>
        0 -1 842804 -4.2682844214141369e-03</internalNodes>
      <leafValues>
        1.7879457771778107e-01 -5.7020276784896851e-01</leafValues></_>
    <_>
      <internalNodes>
        0 -1 888202 -1.0565416596364230e-04</internalNodes>
      <leafValues>
        2.4871699512004852e-01 -3.9191395044326782e-01</leafValues></_>
    <_>
      <internalNodes>
        0 -1 22842 1.7733762040734291e-02</internalNodes>
      <leafValues>
        -1.9645597040653229e-01 5.5783605575561523e-01</leafValues></_>
    <_>
      <internalNodes>
        0 -1 696017 -3.3993265242315829e-04</internalNodes>
      <leafValues>
        4.1264960169792175e-01 -2.4433420598506927e-01</leafValues></_>
    <_>
      <internalNodes>
        0 -1 680779 4.0368470945395529e-04</internalNodes>
      <leafValues>
        -4.3127289414405823e-01 2.3392330110073090e-01</leafValues></_>
    <_>
      <internalNodes>
        0 -1 810855 -1.0162051767110825e-03</internalNodes>
      <leafValues>
        -6.5339386463165283e-01 1.4940837025642395e-01</leafValues></_>
    <_>
      <internalNodes>
        0 -1 819135 3.9637903682887554e-04</internalNodes>
      <leafValues>
        -2.3933443427085876e-01 3.8835963606834412e-01</leafValues></_>
    <_>
      <internalNodes>
        0 -1 609092 2.7384157292544842e-03</internalNodes>
      <leafValues>
        9.2664606869220734e-02 -8.2036465406417847e-01</leafValues></_>
    <_>
      <internalNodes>
        0 -1 1012898 -4.9099099123850465e-04</internalNodes>
      <leafValues>
        2.5314277410507202e-01 -3.1870836019515991e-01</leafValues></_>
    <_>
      <internalNodes>
        0 -1 970713 -9.4457319937646389e-04</internalNodes>
      <leafValues>
        1.5048862993717194e-01 -6.0010915994644165e-01</leafValues></_></weakClassifiers></stage3>
</opencv_storage>
